<?xml version="1.0"?>
<opencv_storage>
<cascade>
  <stageType>BOOST</stageType>
  <featureType>HAAR</featureType>
  <height>24</height>
  <width>24</width>
  <stageParams>
    <boostType>GAB</boostType>
    <minHitRate>9.9500000476837158e-01</minHitRate>
    <maxFalseAlarm>5.0000000000000000e-01</maxFalseAlarm>
    <weightTrimRate>9.4999999999999996e-01</weightTrimRate>
    <maxDepth>1</maxDepth>
    <maxWeakCount>100</maxWeakCount></stageParams>
  <featureParams>
    <maxCatCount>0</maxCatCount>
    <featSize>1</featSize>
    <mode>BASIC</mode></featureParams>
  <stageNum>18</stageNum>
  <stages>
    <!-- stage 0 -->
    <_>
      <maxWeakCount>2</maxWeakCount>
      <stageThreshold>-1.4883695542812347e-01</stageThreshold>
      <weakClassifiers>
        <_>
          <internalNodes>
            0 -1 14 1.2545347213745117e-01</internalNodes>
          <leafValues>
            -7.0588237047195435e-01 9.0476191043853760e-01</leafValues></_>
        <_>
          <internalNodes>
            0 -1 10 6.4191562123596668e-03</internalNodes>
          <leafValues>
            5.5704540014266968e-01 -1.</leafValues></_></weakClassifiers></_>
    <!-- stage 1 -->
    <_>
      <maxWeakCount>2</maxWeakCount>
      <stageThreshold>-1.2051248922944069e-03</stageThreshold>
      <weakClassifiers>
        <_>
          <internalNodes>
            0 -1 5 -3.0905671417713165e-02</internalNodes>
          <leafValues>
            9.5121949911117554e-01 -7.1014493703842163e-01</leafValues></_>
        <_>
          <internalNodes>
            0 -1 41 8.5396245121955872e-03</internalNodes>
          <leafValues>
            -9.1368788480758667e-01 7.0893979072570801e-01</leafValues></_></weakClassifiers></_>
    <!-- stage 2 -->
    <_>
      <maxWeakCount>2</maxWeakCount>
      <stageThreshold>7.6393380761146545e-02</stageThreshold>
      <weakClassifiers>
        <_>
          <internalNodes>
            0 -1 22 -1.6874069115146995e-04</internalNodes>
          <leafValues>
            7.6923078298568726e-01 -8.6206895112991333e-01</leafValues></_>
        <_>
          <internalNodes>
            0 -1 24 2.4569083470851183e-03</internalNodes>
          <leafValues>
            -6.9283741712570190e-01 1.</leafValues></_></weakClassifiers></_>
    <!-- stage 3 -->
    <_>
      <maxWeakCount>2</maxWeakCount>
      <stageThreshold>6.3845999538898468e-02</stageThreshold>
      <weakClassifiers>
        <_>
          <internalNodes>
            0 -1 37 -1.0864947922527790e-02</internalNodes>
          <leafValues>
            8.7755101919174194e-01 -8.6885243654251099e-01</leafValues></_>
        <_>
          <internalNodes>
            0 -1 15 2.4380073882639408e-03</internalNodes>
          <leafValues>
            -7.3757231235504150e-01 9.3269842863082886e-01</leafValues></_></weakClassifiers></_>
    <!-- stage 4 -->
    <_>
      <maxWeakCount>3</maxWeakCount>
      <stageThreshold>-7.2139441967010498e-01</stageThreshold>
      <weakClassifiers>
        <_>
          <internalNodes>
            0 -1 12 -7.3616214096546173e-02</internalNodes>
          <leafValues>
            8.2222223281860352e-01 -7.2307693958282471e-01</leafValues></_>
        <_>
          <internalNodes>
            0 -1 29 4.2158160358667374e-03</internalNodes>
          <leafValues>
            -6.8275117874145508e-01 7.4983859062194824e-01</leafValues></_>
        <_>
          <internalNodes>
            0 -1 42 -7.0822477573528886e-04</internalNodes>
          <leafValues>
            7.1128803491592407e-01 -7.4815613031387329e-01</leafValues></_></weakClassifiers></_>
    <!-- stage 5 -->
    <_>
      <maxWeakCount>2</maxWeakCount>
      <stageThreshold>-8.0142349004745483e-02</stageThreshold>
      <weakClassifiers>
        <_>
          <internalNodes>
            0 -1 39 -5.0557054579257965e-02</internalNodes>
          <leafValues>
            8.0487805604934692e-01 -6.2318837642669678e-01</leafValues></_>
        <_>
          <internalNodes>
            0 -1 16 -1.9932341820094734e-04</internalNodes>
          <leafValues>
            6.0320842266082764e-01 -8.8502037525177002e-01</leafValues></_></weakClassifiers></_>
    <!-- stage 6 -->
    <_>
      <maxWeakCount>3</maxWeakCount>
      <stageThreshold>-3.6744028329849243e-01</stageThreshold>
      <weakClassifiers>
        <_>
          <internalNodes>
            0 -1 0 2.0740877836942673e-02</internalNodes>
          <leafValues>
            -6.8253970146179199e-01 7.0212763547897339e-01</leafValues></_>
        <_>
          <internalNodes>
            0 -1 17 -1.2685356661677361e-02</internalNodes>
          <leafValues>
            8.3825033903121948e-01 -5.5780118703842163e-01</leafValues></_>
        <_>
          <internalNodes>
            0 -1 9 -1.9543047994375229e-02</internalNodes>
          <leafValues>
            9.5019346475601196e-01 -5.1176673173904419e-01</leafValues></_></weakClassifiers></_>
    <!-- stage 7 -->
    <_>
      <maxWeakCount>2</maxWeakCount>
      <stageThreshold>6.4798332750797272e-02</stageThreshold>
      <weakClassifiers>
        <_>
          <internalNodes>
            0 -1 6 -2.7877185493707657e-02</internalNodes>
          <leafValues>
            1. -5.0000000000000000e-01</leafValues></_>
        <_>
          <internalNodes>
            0 -1 4 -2.1161718759685755e-03</internalNodes>
          <leafValues>
            5.6479835510253906e-01 -8.1232631206512451e-01</leafValues></_></weakClassifiers></_>
    <!-- stage 8 -->
    <_>
      <maxWeakCount>2</maxWeakCount>
      <stageThreshold>-6.4901210367679596e-02</stageThreshold>
      <weakClassifiers>
        <_>
          <internalNodes>
            0 -1 2 3.5663763992488384e-04</internalNodes>
          <leafValues>
            -8.4313726425170898e-01 5.5932205915451050e-01</leafValues></_>
        <_>
          <internalNodes>
            0 -1 33 -8.9076068252325058e-04</internalNodes>
          <leafValues>
            7.7823603153228760e-01 -5.5508762598037720e-01</leafValues></_></weakClassifiers></_>
    <!-- stage 9 -->
    <_>
      <maxWeakCount>4</maxWeakCount>
      <stageThreshold>-4.3112389743328094e-02</stageThreshold>
      <weakClassifiers>
        <_>
          <internalNodes>
            0 -1 40 3.6295983940362930e-02</internalNodes>
          <leafValues>
            -5.1999998092651367e-01 8.2857143878936768e-01</leafValues></_>
        <_>
          <internalNodes>
            0 -1 28 -3.0514672398567200e-03</internalNodes>
          <leafValues>
            -6.9145298004150391e-01 5.6734728813171387e-01</leafValues></_>
        <_>
          <internalNodes>
            0 -1 19 -6.6108871251344681e-03</internalNodes>
          <leafValues>
            7.3749101161956787e-01 -6.9583636522293091e-01</leafValues></_>
        <_>
          <internalNodes>
            0 -1 43 1.7588872287888080e-04</internalNodes>
          <leafValues>
            -7.4319475889205933e-01 6.1544847488403320e-01</leafValues></_></weakClassifiers></_>
    <!-- stage 10 -->
    <_>
      <maxWeakCount>2</maxWeakCount>
      <stageThreshold>-1.5192820131778717e-01</stageThreshold>
      <weakClassifiers>
        <_>
          <internalNodes>
            0 -1 1 3.4409560263156891e-02</internalNodes>
          <leafValues>
            -6.0606062412261963e-01 6.8181818723678589e-01</leafValues></_>
        <_>
          <internalNodes>
            0 -1 8 -3.9941538125276566e-03</internalNodes>
          <leafValues>
            -8.3374637365341187e-01 4.5826506614685059e-01</leafValues></_></weakClassifiers></_>
    <!-- stage 11 -->
    <_>
      <maxWeakCount>2</maxWeakCount>
      <stageThreshold>-9.8193570971488953e-02</stageThreshold>
      <weakClassifiers>
        <_>
          <internalNodes>
            0 -1 32 -7.9860736150294542e-04</internalNodes>
          <leafValues>
            6.4444446563720703e-01 -6.0000002384185791e-01</leafValues></_>
        <_>
          <internalNodes>
            0 -1 20 4.9909889698028564e-02</internalNodes>
          <leafValues>
            -7.4263799190521240e-01 6.4280521869659424e-01</leafValues></_></weakClassifiers></_>
    <!-- stage 12 -->
    <_>
      <maxWeakCount>4</maxWeakCount>
      <stageThreshold>-5.6827567517757416e-02</stageThreshold>
      <weakClassifiers>
        <_>
          <internalNodes>
            0 -1 23 -1.7048493027687073e-02</internalNodes>
          <leafValues>
            4.3750000000000000e-01 -8.2608693838119507e-01</leafValues></_>
        <_>
          <internalNodes>
            0 -1 30 -2.0583832520060241e-04</internalNodes>
          <leafValues>
            6.2624824047088623e-01 -7.1481579542160034e-01</leafValues></_>
        <_>
          <internalNodes>
            0 -1 21 -1.5740077942609787e-03</internalNodes>
          <leafValues>
            8.9516687393188477e-01 -4.8147240281105042e-01</leafValues></_>
        <_>
          <internalNodes>
            0 -1 44 2.4994409614009783e-05</internalNodes>
          <leafValues>
            -6.3910341262817383e-01 7.3131054639816284e-01</leafValues></_></weakClassifiers></_>
    <!-- stage 13 -->
    <_>
      <maxWeakCount>2</maxWeakCount>
      <stageThreshold>-1.3621324300765991e-01</stageThreshold>
      <weakClassifiers>
        <_>
          <internalNodes>
            0 -1 3 5.9108264744281769e-02</internalNodes>
          <leafValues>
            5.3125000000000000e-01 -9.5652174949645996e-01</leafValues></_>
        <_>
          <internalNodes>
            0 -1 11 1.0925144888460636e-03</internalNodes>
          <leafValues>
            -6.6746324300765991e-01 8.7562942504882812e-01</leafValues></_></weakClassifiers></_>
    <!-- stage 14 -->
    <_>
      <maxWeakCount>3</maxWeakCount>
      <stageThreshold>-8.2047712802886963e-01</stageThreshold>
      <weakClassifiers>
        <_>
          <internalNodes>
            0 -1 13 -5.5199809139594436e-05</internalNodes>
          <leafValues>
            5.8490568399429321e-01 -7.1929824352264404e-01</leafValues></_>
        <_>
          <internalNodes>
            0 -1 18 1.9454576540738344e-03</internalNodes>
          <leafValues>
            4.8211649060249329e-01 -8.9537125825881958e-01</leafValues></_>
        <_>
          <internalNodes>
            0 -1 26 -4.6911444514989853e-03</internalNodes>
          <leafValues>
            9.1928213834762573e-01 -5.8329534530639648e-01</leafValues></_></weakClassifiers></_>
    <!-- stage 15 -->
    <_>
      <maxWeakCount>2</maxWeakCount>
      <stageThreshold>-1.0409557819366455e-01</stageThreshold>
      <weakClassifiers>
        <_>
          <internalNodes>
            0 -1 13 -5.5199809139594436e-05</internalNodes>
          <leafValues>
            6.1538463830947876e-01 -7.2413790225982666e-01</leafValues></_>
        <_>
          <internalNodes>
            0 -1 34 1.7578227561898530e-04</internalNodes>
          <leafValues>
            -7.1948021650314331e-01 6.8140250444412231e-01</leafValues></_></weakClassifiers></_>
    <!-- stage 16 -->
    <_>
      <maxWeakCount>3</maxWeakCount>
      <stageThreshold>-5.5059653520584106e-01</stageThreshold>
      <weakClassifiers>
        <_>
          <internalNodes>
            0 -1 25 6.7150115501135588e-04</internalNodes>
          <leafValues>
            -7.0967739820480347e-01 7.0833331346511841e-01</leafValues></_>
        <_>
          <internalNodes>
            0 -1 38 -7.7123686671257019e-02</internalNodes>
          <leafValues>
            1. -5.0186181068420410e-01</leafValues></_>
        <_>
          <internalNodes>
            0 -1 35 -7.4478238821029663e-03</internalNodes>
          <leafValues>
            -6.7746478319168091e-01 6.6094273328781128e-01</leafValues></_></weakClassifiers></_>
    <!-- stage 17 -->
    <_>
      <maxWeakCount>4</maxWeakCount>
      <stageThreshold>-1.7342279851436615e-01</stageThreshold>
      <weakClassifiers>
        <_>
          <internalNodes>
            0 -1 27 -2.9571838676929474e-03</internalNodes>
          <leafValues>
            -8.7999999523162842e-01 5.6666666269302368e-01</leafValues></_>
        <_>
          <internalNodes>
            0 -1 7 -2.0681757014244795e-03</internalNodes>
          <leafValues>
            8.4161204099655151e-01 -6.0943949222564697e-01</leafValues></_>
        <_>
          <internalNodes>
            0 -1 36 4.0107924723997712e-04</internalNodes>
          <leafValues>
            7.1616446971893311e-01 -7.3270314931869507e-01</leafValues></_>
        <_>
          <internalNodes>
            0 -1 31 1.3641043566167355e-02</internalNodes>
          <leafValues>
            6.0205316543579102e-01 -8.0083537101745605e-01</leafValues></_></weakClassifiers></_></stages>
  <features>
    <_>
      <rects>
        <_>
          0 0 6 14 -1.</_>
        <_>
          0 0 3 7 2.</_>
        <_>
          3 7 3 7 2.</_></rects>
      <tilted>0</tilted></_>
    <_>
      <rects>
        <_>
          0 0 6 16 -1.</_>
        <_>
          0 0 3 8 2.</_>
        <_>
          3 8 3 8 2.</_></rects>
      <tilted>0</tilted></_>
    <_>
      <rects>
        <_>
          0 7 5 2 -1.</_>
        <_>
          0 8 5 1 2.</_></rects>
      <tilted>0</tilted></_>
    <_>
      <rects>
        <_>
          0 8 6 12 -1.</_>
        <_>
          0 12 6 4 3.</_></rects>
      <tilted>0</tilted></_>
    <_>
      <rects>
        <_>
          0 10 22 1 -1.</_>
        <_>
          11 10 11 1 2.</_></rects>
      <tilted>0</tilted></_>
    <_>
      <rects>
        <_>
          0 13 18 6 -1.</_>
        <_>
          0 15 18 2 3.</_></rects>
      <tilted>0</tilted></_>
    <_>
      <rects>
        <_>
          0 14 19 3 -1.</_>
        <_>
          0 15 19 1 3.</_></rects>
      <tilted>0</tilted></_>
    <_>
      <rects>
        <_>
          1 7 3 16 -1.</_>
        <_>
          2 7 1 16 3.</_></rects>
      <tilted>0</tilted></_>
    <_>
      <rects>
        <_>
          1 9 5 6 -1.</_>
        <_>
          1 12 5 3 2.</_></rects>
      <tilted>0</tilted></_>
    <_>
      <rects>
        <_>
          1 14 14 2 -1.</_>
        <_>
          1 15 14 1 2.</_></rects>
      <tilted>0</tilted></_>
    <_>
      <rects>
        <_>
          2 6 7 18 -1.</_>
        <_>
          2 15 7 9 2.</_></rects>
      <tilted>0</tilted></_>
    <_>
      <rects>
        <_>
          2 10 6 1 -1.</_>
        <_>
          4 10 2 1 3.</_></rects>
      <tilted>0</tilted></_>
    <_>
      <rects>
        <_>
          2 10 12 10 -1.</_>
        <_>
          2 15 12 5 2.</_></rects>
      <tilted>0</tilted></_>
    <_>
      <rects>
        <_>
          2 16 2 6 -1.</_>
        <_>
          2 19 2 3 2.</_></rects>
      <tilted>0</tilted></_>
    <_>
      <rects>
        <_>
          3 3 16 10 -1.</_>
        <_>
          3 8 16 5 2.</_></rects>
      <tilted>0</tilted></_>
    <_>
      <rects>
        <_>
          3 12 14 2 -1.</_>
        <_>
          3 13 14 1 2.</_></rects>
      <tilted>0</tilted></_>
    <_>
      <rects>
        <_>
          4 5 7 3 -1.</_>
        <_>
          4 6 7 1 3.</_></rects>
      <tilted>0</tilted></_>
    <_>
      <rects>
        <_>
          4 18 12 5 -1.</_>
        <_>
          8 18 4 5 3.</_></rects>
      <tilted>0</tilted></_>
    <_>
      <rects>
        <_>
          5 5 17 2 -1.</_>
        <_>
          5 6 17 1 2.</_></rects>
      <tilted>0</tilted></_>
    <_>
      <rects>
        <_>
          6 0 8 6 -1.</_>
        <_>
          6 2 8 2 3.</_></rects>
      <tilted>0</tilted></_>
    <_>
      <rects>
        <_>
          7 2 4 12 -1.</_>
        <_>
          7 8 4 6 2.</_></rects>
      <tilted>0</tilted></_>
    <_>
      <rects>
        <_>
          7 20 6 2 -1.</_>
        <_>
          9 20 2 2 3.</_></rects>
      <tilted>0</tilted></_>
    <_>
      <rects>
        <_>
          8 6 3 3 -1.</_>
        <_>
          8 7 3 1 3.</_></rects>
      <tilted>0</tilted></_>
    <_>
      <rects>
        <_>
          8 12 5 10 -1.</_>
        <_>
          8 17 5 5 2.</_></rects>
      <tilted>0</tilted></_>
    <_>
      <rects>
        <_>
          8 12 8 2 -1.</_>
        <_>
          8 13 8 1 2.</_></rects>
      <tilted>0</tilted></_>
    <_>
      <rects>
        <_>
          8 12 9 2 -1.</_>
        <_>
          8 13 9 1 2.</_></rects>
      <tilted>0</tilted></_>
    <_>
      <rects>
        <_>
          8 20 13 3 -1.</_>
        <_>
          8 21 13 1 3.</_></rects>
      <tilted>0</tilted></_>
    <_>
      <rects>
        <_>
          9 4 6 8 -1.</_>
        <_>
          11 4 2 8 3.</_></rects>
      <tilted>0</tilted></_>
    <_>
      <rects>
        <_>
          9 8 6 8 -1.</_>
        <_>
          12 8 3 8 2.</_></rects>
      <tilted>0</tilted></_>
    <_>
      <rects>
        <_>
          10 20 12 4 -1.</_>
        <_>
          10 20 6 2 2.</_>
        <_>
          16 22 6 2 2.</_></rects>
      <tilted>0</tilted></_>
    <_>
      <rects>
        <_>
          11 2 6 5 -1.</_>
        <_>
          13 2 2 5 3.</_></rects>
      <tilted>0</tilted></_>
    <_>
      <rects>
        <_>
          11 5 6 14 -1.</_>
        <_>
          14 5 3 14 2.</_></rects>
      <tilted>0</tilted></_>
    <_>
      <rects>
        <_>
          11 10 7 2 -1.</_>
        <_>
          11 11 7 1 2.</_></rects>
      <tilted>0</tilted></_>
    <_>
      <rects>
        <_>
          12 0 8 4 -1.</_>
        <_>
          12 0 4 2 2.</_>
        <_>
          16 2 4 2 2.</_></rects>
      <tilted>0</tilted></_>
    <_>
      <rects>
        <_>
          12 5 4 9 -1.</_>
        <_>
          14 5 2 9 2.</_></rects>
      <tilted>0</tilted></_>
    <_>
      <rects>
        <_>
          13 0 4 22 -1.</_>
        <_>
          15 0 2 22 2.</_></rects>
      <tilted>0</tilted></_>
    <_>
      <rects>
        <_>
          14 0 3 10 -1.</_>
        <_>
          15 0 1 10 3.</_></rects>
      <tilted>0</tilted></_>
    <_>
      <rects>
        <_>
          14 4 10 8 -1.</_>
        <_>
          14 4 5 4 2.</_>
        <_>
          19 8 5 4 2.</_></rects>
      <tilted>0</tilted></_>
    <_>
      <rects>
        <_>
          14 7 8 8 -1.</_>
        <_>
          18 7 4 8 2.</_></rects>
      <tilted>0</tilted></_>
    <_>
      <rects>
        <_>
          15 0 9 20 -1.</_>
        <_>
          18 0 3 20 3.</_></rects>
      <tilted>0</tilted></_>
    <_>
      <rects>
        <_>
          15 1 1 21 -1.</_>
        <_>
          15 8 1 7 3.</_></rects>
      <tilted>0</tilted></_>
    <_>
      <rects>
        <_>
          15 5 3 12 -1.</_>
        <_>
          15 9 3 4 3.</_></rects>
      <tilted>0</tilted></_>
    <_>
      <rects>
        <_>
          16 13 1 6 -1.</_>
        <_>
          16 15 1 2 3.</_></rects>
      <tilted>0</tilted></_>
    <_>
      <rects>
        <_>
          20 6 4 4 -1.</_>
        <_>
          22 6 2 4 2.</_></rects>
      <tilted>0</tilted></_>
    <_>
      <rects>
        <_>
          21 0 2 2 -1.</_>
        <_>
          22 0 1 2 2.</_></rects>
      <tilted>0</tilted></_></features></cascade>
</opencv_storage>
